<?xml version="1.0"?>
<opencv_storage>
    <cascade>
        <stageType>BOOST</stageType>
        <featureType>HAAR</featureType>
        <height>20</height>
        <width>20</width>
        <stageParams>
            <boostType>GAB</boostType>
            <minHitRate>9.9900001287460327e-01</minHitRate>
            <maxFalseAlarm>4.0000000596046448e-01</maxFalseAlarm>
            <weightTrimRate>9.4999999999999996e-01</weightTrimRate>
            <maxDepth>1</maxDepth>
            <maxWeakCount>100</maxWeakCount></stageParams>
        <featureParams>
            <maxCatCount>0</maxCatCount>
            <featSize>1</featSize>
            <mode>BASIC</mode></featureParams>
        <stageNum>18</stageNum>
        <stages>
            <!-- stage 0 -->
            <_>
                <maxWeakCount>3</maxWeakCount>
                <stageThreshold>-1.4428426027297974e+00</stageThreshold>
                <weakClassifiers>
                    <_>
                        <internalNodes>
                            0 -1 87 -4.1924998164176941e-02</internalNodes>
                        <leafValues>
                            6.8269228935241699e-01 -9.4959676265716553e-01</leafValues></_>
                    <_>
                        <internalNodes>
                            0 -1 61 -5.7810735702514648e-01</internalNodes>
                        <leafValues>
                            -9.7695618867874146e-01 2.5897732377052307e-01</leafValues></_>
                    <_>
                        <internalNodes>
                            0 -1 40 4.4340632855892181e-02</internalNodes>
                        <leafValues>
                            -7.5222319364547729e-01 6.8361896276473999e-01</leafValues></_></weakClassifiers></_>
            <!-- stage 1 -->
            <_>
                <maxWeakCount>3</maxWeakCount>
                <stageThreshold>-1.0706238746643066e+00</stageThreshold>
                <weakClassifiers>
                    <_>
                        <internalNodes>
                            0 -1 62 1.0530102252960205e-01</internalNodes>
                        <leafValues>
                            -9.3873518705368042e-01 7.9787236452102661e-01</leafValues></_>
                    <_>
                        <internalNodes>
                            0 -1 103 -1.7137534916400909e-02</internalNodes>
                        <leafValues>
                            6.7262357473373413e-01 -8.6898374557495117e-01</leafValues></_>
                    <_>
                        <internalNodes>
                            0 -1 33 -2.3339650942943990e-04</internalNodes>
                        <leafValues>
                            7.3709505796432495e-01 -7.7617543935775757e-01</leafValues></_></weakClassifiers></_>
            <!-- stage 2 -->
            <_>
                <maxWeakCount>3</maxWeakCount>
                <stageThreshold>-1.3044261932373047e+00</stageThreshold>
                <weakClassifiers>
                    <_>
                        <internalNodes>
                            0 -1 22 -7.4496245943009853e-03</internalNodes>
                        <leafValues>
                            -9.3267327547073364e-01 7.4736839532852173e-01</leafValues></_>
                    <_>
                        <internalNodes>
                            0 -1 80 -7.6903407461941242e-03</internalNodes>
                        <leafValues>
                            -7.1979272365570068e-01 6.3495534658432007e-01</leafValues></_>
                    <_>
                        <internalNodes>
                            0 -1 0 -2.4045635014772415e-02</internalNodes>
                        <leafValues>
                            -9.6943295001983643e-01 3.4803974628448486e-01</leafValues></_></weakClassifiers></_>
            <!-- stage 3 -->
            <_>
                <maxWeakCount>5</maxWeakCount>
                <stageThreshold>-2.1163234710693359e+00</stageThreshold>
                <weakClassifiers>
                    <_>
                        <internalNodes>
                            0 -1 84 -4.1060920804738998e-02</internalNodes>
                        <leafValues>
                            9.4117647409439087e-01 -8.7218046188354492e-01</leafValues></_>
                    <_>
                        <internalNodes>
                            0 -1 76 1.0730934143066406e-01</internalNodes>
                        <leafValues>
                            -8.0141568183898926e-01 5.4341661930084229e-01</leafValues></_>
                    <_>
                        <internalNodes>
                            0 -1 17 6.1524286866188049e-02</internalNodes>
                        <leafValues>
                            -7.2074896097183228e-01 3.6951366066932678e-01</leafValues></_>
                    <_>
                        <internalNodes>
                            0 -1 71 6.2512245494872332e-04</internalNodes>
                        <leafValues>
                            -5.2704083919525146e-01 7.4584805965423584e-01</leafValues></_>
                    <_>
                        <internalNodes>
                            0 -1 25 -3.3253930509090424e-02</internalNodes>
                        <leafValues>
                            6.3373064994812012e-01 -4.6782648563385010e-01</leafValues></_></weakClassifiers></_>
            <!-- stage 4 -->
            <_>
                <maxWeakCount>6</maxWeakCount>
                <stageThreshold>-1.6267166137695313e+00</stageThreshold>
                <weakClassifiers>
                    <_>
                        <internalNodes>
                            0 -1 85 -8.4533229470252991e-02</internalNodes>
                        <leafValues>
                            1. -8.6567163467407227e-01</leafValues></_>
                    <_>
                        <internalNodes>
                            0 -1 2 4.6167671680450439e-02</internalNodes>
                        <leafValues>
                            -8.0394369363784790e-01 5.0452756881713867e-01</leafValues></_>
                    <_>
                        <internalNodes>
                            0 -1 78 -4.1941732168197632e-02</internalNodes>
                        <leafValues>
                            9.4659715890884399e-01 -4.1360923647880554e-01</leafValues></_>
                    <_>
                        <internalNodes>
                            0 -1 47 -9.1369450092315674e-03</internalNodes>
                        <leafValues>
                            4.4487953186035156e-01 -7.1876573562622070e-01</leafValues></_>
                    <_>
                        <internalNodes>
                            0 -1 108 -1.0491444729268551e-02</internalNodes>
                        <leafValues>
                            8.5647130012512207e-01 -3.3936196565628052e-01</leafValues></_>
                    <_>
                        <internalNodes>
                            0 -1 115 -3.7680028472095728e-03</internalNodes>
                        <leafValues>
                            -9.5920872688293457e-01 3.5099041461944580e-01</leafValues></_></weakClassifiers></_>
            <!-- stage 5 -->
            <_>
                <maxWeakCount>5</maxWeakCount>
                <stageThreshold>-1.5379273891448975e+00</stageThreshold>
                <weakClassifiers>
                    <_>
                        <internalNodes>
                            0 -1 75 -9.8318867385387421e-02</internalNodes>
                        <leafValues>
                            8.3006536960601807e-01 -8.8538682460784912e-01</leafValues></_>
                    <_>
                        <internalNodes>
                            0 -1 18 1.4507731795310974e-01</internalNodes>
                        <leafValues>
                            -7.2856247425079346e-01 4.7645843029022217e-01</leafValues></_>
                    <_>
                        <internalNodes>
                            0 -1 111 5.0870922859758139e-04</internalNodes>
                        <leafValues>
                            -4.3684929609298706e-01 7.3235529661178589e-01</leafValues></_>
                    <_>
                        <internalNodes>
                            0 -1 6 2.1816794760525227e-03</internalNodes>
                        <leafValues>
                            3.1624567508697510e-01 -9.2097061872482300e-01</leafValues></_>
                    <_>
                        <internalNodes>
                            0 -1 28 1.1620115488767624e-01</internalNodes>
                        <leafValues>
                            2.2882090508937836e-01 -8.9939457178115845e-01</leafValues></_></weakClassifiers></_>
            <!-- stage 6 -->
            <_>
                <maxWeakCount>5</maxWeakCount>
                <stageThreshold>-1.5925039052963257e+00</stageThreshold>
                <weakClassifiers>
                    <_>
                        <internalNodes>
                            0 -1 66 -2.1455872058868408e-01</internalNodes>
                        <leafValues>
                            9.3043476343154907e-01 -8.3594471216201782e-01</leafValues></_>
                    <_>
                        <internalNodes>
                            0 -1 64 2.0751671399921179e-03</internalNodes>
                        <leafValues>
                            -7.3785573244094849e-01 4.4478657841682434e-01</leafValues></_>
                    <_>
                        <internalNodes>
                            0 -1 98 -2.1727299690246582e-01</internalNodes>
                        <leafValues>
                            3.3666685223579407e-01 -8.5086035728454590e-01</leafValues></_>
                    <_>
                        <internalNodes>
                            0 -1 60 -6.2634050846099854e-04</internalNodes>
                        <leafValues>
                            5.4917180538177490e-01 -4.2580640316009521e-01</leafValues></_>
                    <_>
                        <internalNodes>
                            0 -1 26 -1.7068922519683838e-02</internalNodes>
                        <leafValues>
                            -8.5272610187530518e-01 2.8298503160476685e-01</leafValues></_></weakClassifiers></_>
            <!-- stage 7 -->
            <_>
                <maxWeakCount>7</maxWeakCount>
                <stageThreshold>-1.8744064569473267e+00</stageThreshold>
                <weakClassifiers>
                    <_>
                        <internalNodes>
                            0 -1 67 -2.4704284965991974e-01</internalNodes>
                        <leafValues>
                            9.1452991962432861e-01 -8.3748847246170044e-01</leafValues></_>
                    <_>
                        <internalNodes>
                            0 -1 72 9.9244505167007446e-02</internalNodes>
                        <leafValues>
                            -5.8064049482345581e-01 5.5483365058898926e-01</leafValues></_>
                    <_>
                        <internalNodes>
                            0 -1 110 1.2166808592155576e-03</internalNodes>
                        <leafValues>
                            -3.5292449593544006e-01 6.5198421478271484e-01</leafValues></_>
                    <_>
                        <internalNodes>
                            0 -1 42 -1.0880535701289773e-03</internalNodes>
                        <leafValues>
                            6.3131451606750488e-01 -3.1467467546463013e-01</leafValues></_>
                    <_>
                        <internalNodes>
                            0 -1 10 1.8438033293932676e-04</internalNodes>
                        <leafValues>
                            3.1785559654235840e-01 -6.9541746377944946e-01</leafValues></_>
                    <_>
                        <internalNodes>
                            0 -1 52 1.2164096115157008e-03</internalNodes>
                        <leafValues>
                            -3.7736442685127258e-01 5.6839001178741455e-01</leafValues></_>
                    <_>
                        <internalNodes>
                            0 -1 39 -7.2276161517947912e-05</internalNodes>
                        <leafValues>
                            -8.7534290552139282e-01 2.7083054184913635e-01</leafValues></_></weakClassifiers></_>
            <!-- stage 8 -->
            <_>
                <maxWeakCount>11</maxWeakCount>
                <stageThreshold>-1.6245237588882446e+00</stageThreshold>
                <weakClassifiers>
                    <_>
                        <internalNodes>
                            0 -1 67 -2.5909590721130371e-01</internalNodes>
                        <leafValues>
                            8.2758623361587524e-01 -8.2656824588775635e-01</leafValues></_>
                    <_>
                        <internalNodes>
                            0 -1 37 4.8384889960289001e-02</internalNodes>
                        <leafValues>
                            -6.4246451854705811e-01 3.1787025928497314e-01</leafValues></_>
                    <_>
                        <internalNodes>
                            0 -1 24 -7.5154900550842285e-03</internalNodes>
                        <leafValues>
                            1.5836437046527863e-01 -9.7498750686645508e-01</leafValues></_>
                    <_>
                        <internalNodes>
                            0 -1 27 -1.0233842767775059e-03</internalNodes>
                        <leafValues>
                            5.7290297746658325e-01 -3.2852327823638916e-01</leafValues></_>
                    <_>
                        <internalNodes>
                            0 -1 105 1.6225869767367840e-03</internalNodes>
                        <leafValues>
                            -3.2568797469139099e-01 6.7137545347213745e-01</leafValues></_>
                    <_>
                        <internalNodes>
                            0 -1 38 -1.2412508949637413e-02</internalNodes>
                        <leafValues>
                            -4.7855800390243530e-01 3.7434878945350647e-01</leafValues></_>
                    <_>
                        <internalNodes>
                            0 -1 90 -9.3208894133567810e-02</internalNodes>
                        <leafValues>
                            2.0238251984119415e-01 -7.4156874418258667e-01</leafValues></_>
                    <_>
                        <internalNodes>
                            0 -1 19 -1.5237065963447094e-04</internalNodes>
                        <leafValues>
                            3.9178490638732910e-01 -4.6810373663902283e-01</leafValues></_>
                    <_>
                        <internalNodes>
                            0 -1 23 -9.0507283806800842e-02</internalNodes>
                        <leafValues>
                            3.3523195981979370e-01 -4.9330043792724609e-01</leafValues></_>
                    <_>
                        <internalNodes>
                            0 -1 55 -3.0774768674746156e-04</internalNodes>
                        <leafValues>
                            -8.3713036775588989e-01 1.9875489175319672e-01</leafValues></_>
                    <_>
                        <internalNodes>
                            0 -1 93 2.3530763573944569e-03</internalNodes>
                        <leafValues>
                            -3.0225846171379089e-01 7.0851969718933105e-01</leafValues></_></weakClassifiers></_>
            <!-- stage 9 -->
            <_>
                <maxWeakCount>7</maxWeakCount>
                <stageThreshold>-1.5592228174209595e+00</stageThreshold>
                <weakClassifiers>
                    <_>
                        <internalNodes>
                            0 -1 68 -3.1110870838165283e-01</internalNodes>
                        <leafValues>
                            9.0566039085388184e-01 -8.1901282072067261e-01</leafValues></_>
                    <_>
                        <internalNodes>
                            0 -1 48 1.6237935423851013e-01</internalNodes>
                        <leafValues>
                            -5.3550690412521362e-01 6.0415339469909668e-01</leafValues></_>
                    <_>
                        <internalNodes>
                            0 -1 51 6.3989669084548950e-02</internalNodes>
                        <leafValues>
                            -3.3757507801055908e-01 8.8685584068298340e-01</leafValues></_>
                    <_>
                        <internalNodes>
                            0 -1 14 9.5103867352008820e-04</internalNodes>
                        <leafValues>
                            2.7432209253311157e-01 -9.4392454624176025e-01</leafValues></_>
                    <_>
                        <internalNodes>
                            0 -1 97 -2.1150483007659204e-05</internalNodes>
                        <leafValues>
                            -9.0395206212997437e-01 2.2237966954708099e-01</leafValues></_>
                    <_>
                        <internalNodes>
                            0 -1 89 1.5418024268001318e-03</internalNodes>
                        <leafValues>
                            -4.0850502252578735e-01 5.3576433658599854e-01</leafValues></_>
                    <_>
                        <internalNodes>
                            0 -1 35 6.6334474831819534e-04</internalNodes>
                        <leafValues>
                            2.2673763334751129e-01 -8.6130893230438232e-01</leafValues></_></weakClassifiers></_>
            <!-- stage 10 -->
            <_>
                <maxWeakCount>5</maxWeakCount>
                <stageThreshold>-1.5285127162933350e+00</stageThreshold>
                <weakClassifiers>
                    <_>
                        <internalNodes>
                            0 -1 74 -2.4426095187664032e-01</internalNodes>
                        <leafValues>
                            7.9032260179519653e-01 -8.3457249402999878e-01</leafValues></_>
                    <_>
                        <internalNodes>
                            0 -1 36 -1.5838801860809326e-02</internalNodes>
                        <leafValues>
                            1.2340068072080612e-01 -9.0915650129318237e-01</leafValues></_>
                    <_>
                        <internalNodes>
                            0 -1 44 -1.5746784210205078e-01</internalNodes>
                        <leafValues>
                            3.7445855140686035e-01 -6.4304178953170776e-01</leafValues></_>
                    <_>
                        <internalNodes>
                            0 -1 100 5.3017954342067242e-03</internalNodes>
                        <leafValues>
                            -3.7661972641944885e-01 5.2881324291229248e-01</leafValues></_>
                    <_>
                        <internalNodes>
                            0 -1 59 -1.3945335149765015e-01</internalNodes>
                        <leafValues>
                            2.0232060551643372e-01 -9.4405305385589600e-01</leafValues></_></weakClassifiers></_>
            <!-- stage 11 -->
            <_>
                <maxWeakCount>9</maxWeakCount>
                <stageThreshold>-2.3704409599304199e+00</stageThreshold>
                <weakClassifiers>
                    <_>
                        <internalNodes>
                            0 -1 86 -9.1017328202724457e-02</internalNodes>
                        <leafValues>
                            4.7560974955558777e-01 -8.4749037027359009e-01</leafValues></_>
                    <_>
                        <internalNodes>
                            0 -1 50 1.5921976882964373e-03</internalNodes>
                        <leafValues>
                            -7.7915054559707642e-01 1.9107416272163391e-01</leafValues></_>
                    <_>
                        <internalNodes>
                            0 -1 99 -4.1551630944013596e-02</internalNodes>
                        <leafValues>
                            3.1497049331665039e-01 -6.4332121610641479e-01</leafValues></_>
                    <_>
                        <internalNodes>
                            0 -1 53 -3.2009300775825977e-04</internalNodes>
                        <leafValues>
                            7.2135931253433228e-01 -2.6558125019073486e-01</leafValues></_>
                    <_>
                        <internalNodes>
                            0 -1 58 -1.7940957099199295e-02</internalNodes>
                        <leafValues>
                            -5.5596411228179932e-01 3.9553633332252502e-01</leafValues></_>
                    <_>
                        <internalNodes>
                            0 -1 3 -1.1962820281041786e-04</internalNodes>
                        <leafValues>
                            4.2946341633796692e-01 -4.1762498021125793e-01</leafValues></_>
                    <_>
                        <internalNodes>
                            0 -1 9 7.9625555372331291e-05</internalNodes>
                        <leafValues>
                            2.5454312562942505e-01 -6.6318798065185547e-01</leafValues></_>
                    <_>
                        <internalNodes>
                            0 -1 88 -9.3551690224558115e-04</internalNodes>
                        <leafValues>
                            5.5662584304809570e-01 -3.3693727850914001e-01</leafValues></_>
                    <_>
                        <internalNodes>
                            0 -1 57 -9.7118725534528494e-05</internalNodes>
                        <leafValues>
                            -8.1433308124542236e-01 2.6958510279655457e-01</leafValues></_></weakClassifiers></_>
            <!-- stage 12 -->
            <_>
                <maxWeakCount>9</maxWeakCount>
                <stageThreshold>-1.9737334251403809e+00</stageThreshold>
                <weakClassifiers>
                    <_>
                        <internalNodes>
                            0 -1 65 -2.8266680240631104e-01</internalNodes>
                        <leafValues>
                            6.0937500000000000e-01 -8.1902986764907837e-01</leafValues></_>
                    <_>
                        <internalNodes>
                            0 -1 29 3.5557467490434647e-02</internalNodes>
                        <leafValues>
                            -5.3728276491165161e-01 6.7531001567840576e-01</leafValues></_>
                    <_>
                        <internalNodes>
                            0 -1 15 -2.5921566411852837e-03</internalNodes>
                        <leafValues>
                            5.7244074344635010e-01 -4.1048189997673035e-01</leafValues></_>
                    <_>
                        <internalNodes>
                            0 -1 41 4.4959713704884052e-04</internalNodes>
                        <leafValues>
                            -3.1665411591529846e-01 6.4122128486633301e-01</leafValues></_>
                    <_>
                        <internalNodes>
                            0 -1 109 5.8602960780262947e-04</internalNodes>
                        <leafValues>
                            -3.4844371676445007e-01 5.3458034992218018e-01</leafValues></_>
                    <_>
                        <internalNodes>
                            0 -1 8 -1.9756174087524414e-01</internalNodes>
                        <leafValues>
                            3.9045172929763794e-01 -4.4498711824417114e-01</leafValues></_>
                    <_>
                        <internalNodes>
                            0 -1 16 -2.8751339763402939e-02</internalNodes>
                        <leafValues>
                            -9.1998481750488281e-01 1.9412279129028320e-01</leafValues></_>
                    <_>
                        <internalNodes>
                            0 -1 12 1.2619719200301915e-04</internalNodes>
                        <leafValues>
                            1.8973205983638763e-01 -8.9206171035766602e-01</leafValues></_>
                    <_>
                        <internalNodes>
                            0 -1 113 -7.0063993916846812e-05</internalNodes>
                        <leafValues>
                            5.9431093931198120e-01 -3.1614756584167480e-01</leafValues></_></weakClassifiers></_>
            <!-- stage 13 -->
            <_>
                <maxWeakCount>9</maxWeakCount>
                <stageThreshold>-1.6425101757049561e+00</stageThreshold>
                <weakClassifiers>
                    <_>
                        <internalNodes>
                            0 -1 69 -2.8141710162162781e-01</internalNodes>
                        <leafValues>
                            8.0952382087707520e-01 -8.0821919441223145e-01</leafValues></_>
                    <_>
                        <internalNodes>
                            0 -1 4 -5.2960391622036695e-04</internalNodes>
                        <leafValues>
                            4.9117448925971985e-01 -5.7557684183120728e-01</leafValues></_>
                    <_>
                        <internalNodes>
                            0 -1 92 -5.4699851898476481e-04</internalNodes>
                        <leafValues>
                            6.3082236051559448e-01 -3.4321951866149902e-01</leafValues></_>
                    <_>
                        <internalNodes>
                            0 -1 77 7.5842888327315450e-04</internalNodes>
                        <leafValues>
                            -2.3747515678405762e-01 7.1177166700363159e-01</leafValues></_>
                    <_>
                        <internalNodes>
                            0 -1 96 -2.5074192308238707e-05</internalNodes>
                        <leafValues>
                            -7.9783046245574951e-01 2.6309219002723694e-01</leafValues></_>
                    <_>
                        <internalNodes>
                            0 -1 20 -1.6366583108901978e-01</internalNodes>
                        <leafValues>
                            4.6170637011528015e-01 -4.9651378393173218e-01</leafValues></_>
                    <_>
                        <internalNodes>
                            0 -1 49 3.4540894557721913e-04</internalNodes>
                        <leafValues>
                            2.8802067041397095e-01 -5.9162855148315430e-01</leafValues></_>
                    <_>
                        <internalNodes>
                            0 -1 114 1.8737235222943127e-04</internalNodes>
                        <leafValues>
                            -3.4001666307449341e-01 5.9801155328750610e-01</leafValues></_>
                    <_>
                        <internalNodes>
                            0 -1 54 6.9006986450403929e-04</internalNodes>
                        <leafValues>
                            -2.5285950303077698e-01 6.0739815235137939e-01</leafValues></_></weakClassifiers></_>
            <!-- stage 14 -->
            <_>
                <maxWeakCount>5</maxWeakCount>
                <stageThreshold>-1.3765492439270020e+00</stageThreshold>
                <weakClassifiers>
                    <_>
                        <internalNodes>
                            0 -1 70 -1.7199487984180450e-01</internalNodes>
                        <leafValues>
                            8.7500000000000000e-01 -8.5074627399444580e-01</leafValues></_>
                    <_>
                        <internalNodes>
                            0 -1 104 -3.1166630797088146e-03</internalNodes>
                        <leafValues>
                            3.1607341766357422e-01 -8.5431855916976929e-01</leafValues></_>
                    <_>
                        <internalNodes>
                            0 -1 83 -8.5112035274505615e-02</internalNodes>
                        <leafValues>
                            2.9272070527076721e-01 -7.7894836664199829e-01</leafValues></_>
                    <_>
                        <internalNodes>
                            0 -1 31 -3.8025475805625319e-04</internalNodes>
                        <leafValues>
                            5.4212039709091187e-01 -4.8122838139533997e-01</leafValues></_>
                    <_>
                        <internalNodes>
                            0 -1 34 5.8887869818136096e-04</internalNodes>
                        <leafValues>
                            -4.3457177281379700e-01 5.6534349918365479e-01</leafValues></_></weakClassifiers></_>
            <!-- stage 15 -->
            <_>
                <maxWeakCount>9</maxWeakCount>
                <stageThreshold>-1.5298413038253784e+00</stageThreshold>
                <weakClassifiers>
                    <_>
                        <internalNodes>
                            0 -1 67 -2.9871279001235962e-01</internalNodes>
                        <leafValues>
                            9.4366198778152466e-01 -7.6793622970581055e-01</leafValues></_>
                    <_>
                        <internalNodes>
                            0 -1 22 -7.1035274304449558e-03</internalNodes>
                        <leafValues>
                            -6.4977198839187622e-01 2.5923129916191101e-01</leafValues></_>
                    <_>
                        <internalNodes>
                            0 -1 7 5.2373483777046204e-03</internalNodes>
                        <leafValues>
                            2.2397699952125549e-01 -7.9335242509841919e-01</leafValues></_>
                    <_>
                        <internalNodes>
                            0 -1 102 -8.5934734670445323e-05</internalNodes>
                        <leafValues>
                            -8.3741527795791626e-01 1.5194021165370941e-01</leafValues></_>
                    <_>
                        <internalNodes>
                            0 -1 13 -5.6878682225942612e-03</internalNodes>
                        <leafValues>
                            -8.9994561672210693e-01 1.9355016946792603e-01</leafValues></_>
                    <_>
                        <internalNodes>
                            0 -1 43 -2.6287989690899849e-02</internalNodes>
                        <leafValues>
                            1.8816478550434113e-01 -8.0499655008316040e-01</leafValues></_>
                    <_>
                        <internalNodes>
                            0 -1 94 7.5873662717640400e-04</internalNodes>
                        <leafValues>
                            -4.3742626905441284e-01 3.4779441356658936e-01</leafValues></_>
                    <_>
                        <internalNodes>
                            0 -1 56 -3.8102657999843359e-03</internalNodes>
                        <leafValues>
                            -9.5405745506286621e-01 1.6591906547546387e-01</leafValues></_>
                    <_>
                        <internalNodes>
                            0 -1 30 -5.5724874138832092e-02</internalNodes>
                        <leafValues>
                            5.8077812194824219e-01 -2.8998288512229919e-01</leafValues></_></weakClassifiers></_>
            <!-- stage 16 -->
            <_>
                <maxWeakCount>10</maxWeakCount>
                <stageThreshold>-1.6805820465087891e+00</stageThreshold>
                <weakClassifiers>
                    <_>
                        <internalNodes>
                            0 -1 82 -7.9874381422996521e-02</internalNodes>
                        <leafValues>
                            5.8518517017364502e-01 -8.2535213232040405e-01</leafValues></_>
                    <_>
                        <internalNodes>
                            0 -1 73 -2.5574800372123718e-01</internalNodes>
                        <leafValues>
                            9.1083669662475586e-01 -4.5204594731330872e-01</leafValues></_>
                    <_>
                        <internalNodes>
                            0 -1 46 -8.4656907711178064e-04</internalNodes>
                        <leafValues>
                            6.4875930547714233e-01 -2.9628643393516541e-01</leafValues></_>
                    <_>
                        <internalNodes>
                            0 -1 81 3.4569867420941591e-03</internalNodes>
                        <leafValues>
                            2.4595682322978973e-01 -8.2357782125473022e-01</leafValues></_>
                    <_>
                        <internalNodes>
                            0 -1 112 4.3950139661319554e-04</internalNodes>
                        <leafValues>
                            -3.6673951148986816e-01 4.2601966857910156e-01</leafValues></_>
                    <_>
                        <internalNodes>
                            0 -1 5 -1.0573719919193536e-04</internalNodes>
                        <leafValues>
                            -8.8501459360122681e-01 2.0759326219558716e-01</leafValues></_>
                    <_>
                        <internalNodes>
                            0 -1 32 -7.1725115412846208e-04</internalNodes>
                        <leafValues>
                            5.3382688760757446e-01 -3.3683529496192932e-01</leafValues></_>
                    <_>
                        <internalNodes>
                            0 -1 45 5.5061414605006576e-04</internalNodes>
                        <leafValues>
                            -2.6929154992103577e-01 6.2379115819931030e-01</leafValues></_>
                    <_>
                        <internalNodes>
                            0 -1 95 -1.1214094702154398e-03</internalNodes>
                        <leafValues>
                            2.6597526669502258e-01 -8.4968036413192749e-01</leafValues></_>
                    <_>
                        <internalNodes>
                            0 -1 1 -1.5515433624386787e-03</internalNodes>
                        <leafValues>
                            -8.9443343877792358e-01 1.4644341170787811e-01</leafValues></_></weakClassifiers></_>
            <!-- stage 17 -->
            <_>
                <maxWeakCount>9</maxWeakCount>
                <stageThreshold>-1.2369915246963501e+00</stageThreshold>
                <weakClassifiers>
                    <_>
                        <internalNodes>
                            0 -1 101 -4.8585161566734314e-02</internalNodes>
                        <leafValues>
                            7.3109245300292969e-01 -8.2053655385971069e-01</leafValues></_>
                    <_>
                        <internalNodes>
                            0 -1 21 5.3533976897597313e-03</internalNodes>
                        <leafValues>
                            -6.9754922389984131e-01 3.3504310250282288e-01</leafValues></_>
                    <_>
                        <internalNodes>
                            0 -1 91 4.4610515236854553e-02</internalNodes>
                        <leafValues>
                            -3.8644751906394958e-01 6.6249799728393555e-01</leafValues></_>
                    <_>
                        <internalNodes>
                            0 -1 79 -5.3412011766340584e-05</internalNodes>
                        <leafValues>
                            6.9876259565353394e-01 -2.9943627119064331e-01</leafValues></_>
                    <_>
                        <internalNodes>
                            0 -1 71 6.1701197410002351e-04</internalNodes>
                        <leafValues>
                            -2.9671305418014526e-01 7.5287783145904541e-01</leafValues></_>
                    <_>
                        <internalNodes>
                            0 -1 63 -7.5170741183683276e-05</internalNodes>
                        <leafValues>
                            -7.4573928117752075e-01 3.4570652246475220e-01</leafValues></_>
                    <_>
                        <internalNodes>
                            0 -1 11 -8.4935933351516724e-02</internalNodes>
                        <leafValues>
                            4.7816461324691772e-01 -5.4039984941482544e-01</leafValues></_>
                    <_>
                        <internalNodes>
                            0 -1 106 -6.0808367561548948e-04</internalNodes>
                        <leafValues>
                            8.1022769212722778e-01 -3.1429696083068848e-01</leafValues></_>
                    <_>
                        <internalNodes>
                            0 -1 107 -1.9950368441641331e-03</internalNodes>
                        <leafValues>
                            1. -2.3662057518959045e-01</leafValues></_></weakClassifiers></_></stages>
        <features>
            <_>
                <rects>
                    <_>
                        0 0 1 9 -1.</_>
                    <_>
                        0 3 1 3 2.</_></rects>
                <tilted>0</tilted></_>
            <_>
                <rects>
                    <_>
                        0 0 1 14 -1.</_>
                    <_>
                        0 7 1 7 2.</_></rects>
                <tilted>0</tilted></_>
            <_>
                <rects>
                    <_>
                        0 0 10 8 -1.</_>
                    <_>
                        0 4 10 4 2.</_></rects>
                <tilted>0</tilted></_>
            <_>
                <rects>
                    <_>
                        0 1 4 10 -1.</_>
                    <_>
                        0 1 2 5 2.</_>
                    <_>
                        2 6 2 5 2.</_></rects>
                <tilted>0</tilted></_>
            <_>
                <rects>
                    <_>
                        0 3 4 8 -1.</_>
                    <_>
                        0 3 2 4 2.</_>
                    <_>
                        2 7 2 4 2.</_></rects>
                <tilted>0</tilted></_>
            <_>
                <rects>
                    <_>
                        0 4 2 5 -1.</_>
                    <_>
                        1 4 1 5 2.</_></rects>
                <tilted>0</tilted></_>
            <_>
                <rects>
                    <_>
                        0 4 4 8 -1.</_>
                    <_>
                        0 4 2 4 2.</_>
                    <_>
                        2 8 2 4 2.</_></rects>
                <tilted>0</tilted></_>
            <_>
                <rects>
                    <_>
                        0 6 2 14 -1.</_>
                    <_>
                        0 13 2 7 2.</_></rects>
                <tilted>0</tilted></_>
            <_>
                <rects>
                    <_>
                        0 6 20 14 -1.</_>
                    <_>
                        0 13 20 7 2.</_></rects>
                <tilted>0</tilted></_>
            <_>
                <rects>
                    <_>
                        0 7 2 2 -1.</_>
                    <_>
                        0 8 2 1 2.</_></rects>
                <tilted>0</tilted></_>
            <_>
                <rects>
                    <_>
                        0 7 2 4 -1.</_>
                    <_>
                        0 9 2 2 2.</_></rects>
                <tilted>0</tilted></_>
            <_>
                <rects>
                    <_>
                        0 7 13 8 -1.</_>
                    <_>
                        0 11 13 4 2.</_></rects>
                <tilted>0</tilted></_>
            <_>
                <rects>
                    <_>
                        0 8 1 2 -1.</_>
                    <_>
                        0 9 1 1 2.</_></rects>
                <tilted>0</tilted></_>
            <_>
                <rects>
                    <_>
                        0 9 1 10 -1.</_>
                    <_>
                        0 14 1 5 2.</_></rects>
                <tilted>0</tilted></_>
            <_>
                <rects>
                    <_>
                        0 11 1 6 -1.</_>
                    <_>
                        0 14 1 3 2.</_></rects>
                <tilted>0</tilted></_>
            <_>
                <rects>
                    <_>
                        0 11 8 4 -1.</_>
                    <_>
                        0 11 4 2 2.</_>
                    <_>
                        4 13 4 2 2.</_></rects>
                <tilted>0</tilted></_>
            <_>
                <rects>
                    <_>
                        1 0 18 4 -1.</_>
                    <_>
                        10 0 9 4 2.</_></rects>
                <tilted>0</tilted></_>
            <_>
                <rects>
                    <_>
                        1 0 18 8 -1.</_>
                    <_>
                        1 4 18 4 2.</_></rects>
                <tilted>0</tilted></_>
            <_>
                <rects>
                    <_>
                        1 1 13 8 -1.</_>
                    <_>
                        1 5 13 4 2.</_></rects>
                <tilted>0</tilted></_>
            <_>
                <rects>
                    <_>
                        1 2 4 12 -1.</_>
                    <_>
                        1 2 2 6 2.</_>
                    <_>
                        3 8 2 6 2.</_></rects>
                <tilted>0</tilted></_>
            <_>
                <rects>
                    <_>
                        1 4 11 16 -1.</_>
                    <_>
                        1 12 11 8 2.</_></rects>
                <tilted>0</tilted></_>
            <_>
                <rects>
                    <_>
                        1 5 8 4 -1.</_>
                    <_>
                        1 5 4 2 2.</_>
                    <_>
                        5 7 4 2 2.</_></rects>
                <tilted>0</tilted></_>
            <_>
                <rects>
                    <_>
                        1 7 18 1 -1.</_>
                    <_>
                        7 7 6 1 2.</_></rects>
                <tilted>0</tilted></_>
            <_>
                <rects>
                    <_>
                        1 7 10 12 -1.</_>
                    <_>
                        1 13 10 6 2.</_></rects>
                <tilted>0</tilted></_>
            <_>
                <rects>
                    <_>
                        1 8 1 6 -1.</_>
                    <_>
                        1 10 1 2 2.</_></rects>
                <tilted>0</tilted></_>
            <_>
                <rects>
                    <_>
                        1 8 8 10 -1.</_>
                    <_>
                        1 8 4 5 2.</_>
                    <_>
                        5 13 4 5 2.</_></rects>
                <tilted>0</tilted></_>
            <_>
                <rects>
                    <_>
                        1 19 6 1 -1.</_>
                    <_>
                        3 19 2 1 2.</_></rects>
                <tilted>0</tilted></_>
            <_>
                <rects>
                    <_>
                        2 0 2 13 -1.</_>
                    <_>
                        3 0 1 13 2.</_></rects>
                <tilted>0</tilted></_>
            <_>
                <rects>
                    <_>
                        2 0 18 19 -1.</_>
                    <_>
                        11 0 9 19 2.</_></rects>
                <tilted>0</tilted></_>
            <_>
                <rects>
                    <_>
                        2 6 10 1 -1.</_>
                    <_>
                        7 6 5 1 2.</_></rects>
                <tilted>0</tilted></_>
            <_>
                <rects>
                    <_>
                        2 9 8 8 -1.</_>
                    <_>
                        2 9 4 4 2.</_>
                    <_>
                        6 13 4 4 2.</_></rects>
                <tilted>0</tilted></_>
            <_>
                <rects>
                    <_>
                        3 0 2 18 -1.</_>
                    <_>
                        4 0 1 18 2.</_></rects>
                <tilted>0</tilted></_>
            <_>
                <rects>
                    <_>
                        3 6 2 6 -1.</_>
                    <_>
                        4 6 1 6 2.</_></rects>
                <tilted>0</tilted></_>
            <_>
                <rects>
                    <_>
                        3 8 2 6 -1.</_>
                    <_>
                        4 8 1 6 2.</_></rects>
                <tilted>0</tilted></_>
            <_>
                <rects>
                    <_>
                        3 8 6 4 -1.</_>
                    <_>
                        3 10 6 2 2.</_></rects>
                <tilted>0</tilted></_>
            <_>
                <rects>
                    <_>
                        3 18 12 1 -1.</_>
                    <_>
                        9 18 6 1 2.</_></rects>
                <tilted>0</tilted></_>
            <_>
                <rects>
                    <_>
                        3 19 12 1 -1.</_>
                    <_>
                        7 19 4 1 2.</_></rects>
                <tilted>0</tilted></_>
            <_>
                <rects>
                    <_>
                        4 0 6 10 -1.</_>
                    <_>
                        4 0 3 5 2.</_>
                    <_>
                        7 5 3 5 2.</_></rects>
                <tilted>0</tilted></_>
            <_>
                <rects>
                    <_>
                        4 1 6 1 -1.</_>
                    <_>
                        6 1 2 1 2.</_></rects>
                <tilted>0</tilted></_>
            <_>
                <rects>
                    <_>
                        4 2 6 2 -1.</_>
                    <_>
                        4 3 6 1 2.</_></rects>
                <tilted>0</tilted></_>
            <_>
                <rects>
                    <_>
                        4 5 8 5 -1.</_>
                    <_>
                        8 5 4 5 2.</_></rects>
                <tilted>0</tilted></_>
            <_>
                <rects>
                    <_>
                        4 6 2 14 -1.</_>
                    <_>
                        4 6 1 7 2.</_>
                    <_>
                        5 13 1 7 2.</_></rects>
                <tilted>0</tilted></_>
            <_>
                <rects>
                    <_>
                        4 6 2 9 -1.</_>
                    <_>
                        5 6 1 9 2.</_></rects>
                <tilted>0</tilted></_>
            <_>
                <rects>
                    <_>
                        4 6 12 4 -1.</_>
                    <_>
                        8 6 4 4 2.</_></rects>
                <tilted>0</tilted></_>
            <_>
                <rects>
                    <_>
                        4 7 13 12 -1.</_>
                    <_>
                        4 13 13 6 2.</_></rects>
                <tilted>0</tilted></_>
            <_>
                <rects>
                    <_>
                        4 9 4 2 -1.</_>
                    <_>
                        4 9 2 1 2.</_>
                    <_>
                        6 10 2 1 2.</_></rects>
                <tilted>0</tilted></_>
            <_>
                <rects>
                    <_>
                        4 11 3 2 -1.</_>
                    <_>
                        4 12 3 1 2.</_></rects>
                <tilted>0</tilted></_>
            <_>
                <rects>
                    <_>
                        4 18 6 1 -1.</_>
                    <_>
                        6 18 2 1 2.</_></rects>
                <tilted>0</tilted></_>
            <_>
                <rects>
                    <_>
                        5 0 9 8 -1.</_>
                    <_>
                        5 4 9 4 2.</_></rects>
                <tilted>0</tilted></_>
            <_>
                <rects>
                    <_>
                        5 0 14 2 -1.</_>
                    <_>
                        5 1 14 1 2.</_></rects>
                <tilted>0</tilted></_>
            <_>
                <rects>
                    <_>
                        5 5 3 4 -1.</_>
                    <_>
                        5 7 3 2 2.</_></rects>
                <tilted>0</tilted></_>
            <_>
                <rects>
                    <_>
                        5 5 9 4 -1.</_>
                    <_>
                        5 7 9 2 2.</_></rects>
                <tilted>0</tilted></_>
            <_>
                <rects>
                    <_>
                        5 7 3 2 -1.</_>
                    <_>
                        5 8 3 1 2.</_></rects>
                <tilted>0</tilted></_>
            <_>
                <rects>
                    <_>
                        5 8 1 2 -1.</_>
                    <_>
                        5 9 1 1 2.</_></rects>
                <tilted>0</tilted></_>
            <_>
                <rects>
                    <_>
                        5 11 3 2 -1.</_>
                    <_>
                        5 12 3 1 2.</_></rects>
                <tilted>0</tilted></_>
            <_>
                <rects>
                    <_>
                        6 0 14 2 -1.</_>
                    <_>
                        6 1 14 1 2.</_></rects>
                <tilted>0</tilted></_>
            <_>
                <rects>
                    <_>
                        6 1 12 1 -1.</_>
                    <_>
                        12 1 6 1 2.</_></rects>
                <tilted>0</tilted></_>
            <_>
                <rects>
                    <_>
                        6 3 4 2 -1.</_>
                    <_>
                        8 3 2 2 2.</_></rects>
                <tilted>0</tilted></_>
            <_>
                <rects>
                    <_>
                        6 5 6 1 -1.</_>
                    <_>
                        8 5 2 1 2.</_></rects>
                <tilted>0</tilted></_>
            <_>
                <rects>
                    <_>
                        6 5 9 11 -1.</_>
                    <_>
                        9 5 3 11 2.</_></rects>
                <tilted>0</tilted></_>
            <_>
                <rects>
                    <_>
                        6 9 4 3 -1.</_>
                    <_>
                        8 9 2 3 2.</_></rects>
                <tilted>0</tilted></_>
            <_>
                <rects>
                    <_>
                        7 0 13 18 -1.</_>
                    <_>
                        7 6 13 6 2.</_></rects>
                <tilted>0</tilted></_>
            <_>
                <rects>
                    <_>
                        7 1 7 8 -1.</_>
                    <_>
                        7 5 7 4 2.</_></rects>
                <tilted>0</tilted></_>
            <_>
                <rects>
                    <_>
                        7 2 2 5 -1.</_>
                    <_>
                        8 2 1 5 2.</_></rects>
                <tilted>0</tilted></_>
            <_>
                <rects>
                    <_>
                        7 3 2 6 -1.</_>
                    <_>
                        8 3 1 6 2.</_></rects>
                <tilted>0</tilted></_>
            <_>
                <rects>
                    <_>
                        7 3 6 14 -1.</_>
                    <_>
                        7 10 6 7 2.</_></rects>
                <tilted>0</tilted></_>
            <_>
                <rects>
                    <_>
                        7 4 5 12 -1.</_>
                    <_>
                        7 10 5 6 2.</_></rects>
                <tilted>0</tilted></_>
            <_>
                <rects>
                    <_>
                        7 4 6 12 -1.</_>
                    <_>
                        7 10 6 6 2.</_></rects>
                <tilted>0</tilted></_>
            <_>
                <rects>
                    <_>
                        7 4 7 14 -1.</_>
                    <_>
                        7 11 7 7 2.</_></rects>
                <tilted>0</tilted></_>
            <_>
                <rects>
                    <_>
                        7 5 7 12 -1.</_>
                    <_>
                        7 11 7 6 2.</_></rects>
                <tilted>0</tilted></_>
            <_>
                <rects>
                    <_>
                        7 6 8 8 -1.</_>
                    <_>
                        7 10 8 4 2.</_></rects>
                <tilted>0</tilted></_>
            <_>
                <rects>
                    <_>
                        7 10 2 2 -1.</_>
                    <_>
                        7 11 2 1 2.</_></rects>
                <tilted>0</tilted></_>
            <_>
                <rects>
                    <_>
                        8 1 4 8 -1.</_>
                    <_>
                        8 5 4 4 2.</_></rects>
                <tilted>0</tilted></_>
            <_>
                <rects>
                    <_>
                        8 4 5 14 -1.</_>
                    <_>
                        8 11 5 7 2.</_></rects>
                <tilted>0</tilted></_>
            <_>
                <rects>
                    <_>
                        8 4 6 12 -1.</_>
                    <_>
                        8 10 6 6 2.</_></rects>
                <tilted>0</tilted></_>
            <_>
                <rects>
                    <_>
                        8 6 4 8 -1.</_>
                    <_>
                        8 10 4 4 2.</_></rects>
                <tilted>0</tilted></_>
            <_>
                <rects>
                    <_>
                        8 6 12 12 -1.</_>
                    <_>
                        8 6 6 6 2.</_>
                    <_>
                        14 12 6 6 2.</_></rects>
                <tilted>0</tilted></_>
            <_>
                <rects>
                    <_>
                        8 7 1 2 -1.</_>
                    <_>
                        8 8 1 1 2.</_></rects>
                <tilted>0</tilted></_>
            <_>
                <rects>
                    <_>
                        8 7 12 1 -1.</_>
                    <_>
                        14 7 6 1 2.</_></rects>
                <tilted>0</tilted></_>
            <_>
                <rects>
                    <_>
                        8 13 2 6 -1.</_>
                    <_>
                        8 13 1 3 2.</_>
                    <_>
                        9 16 1 3 2.</_></rects>
                <tilted>0</tilted></_>
            <_>
                <rects>
                    <_>
                        9 0 1 15 -1.</_>
                    <_>
                        9 5 1 5 2.</_></rects>
                <tilted>0</tilted></_>
            <_>
                <rects>
                    <_>
                        9 1 4 5 -1.</_>
                    <_>
                        11 1 2 5 2.</_></rects>
                <tilted>0</tilted></_>
            <_>
                <rects>
                    <_>
                        9 3 2 12 -1.</_>
                    <_>
                        9 9 2 6 2.</_></rects>
                <tilted>0</tilted></_>
            <_>
                <rects>
                    <_>
                        9 3 10 11 -1.</_>
                    <_>
                        14 3 5 11 2.</_></rects>
                <tilted>0</tilted></_>
            <_>
                <rects>
                    <_>
                        9 4 1 12 -1.</_>
                    <_>
                        9 10 1 6 2.</_></rects>
                <tilted>0</tilted></_>
            <_>
                <rects>
                    <_>
                        9 4 2 12 -1.</_>
                    <_>
                        9 10 2 6 2.</_></rects>
                <tilted>0</tilted></_>
            <_>
                <rects>
                    <_>
                        9 4 8 4 -1.</_>
                    <_>
                        13 4 4 4 2.</_></rects>
                <tilted>0</tilted></_>
            <_>
                <rects>
                    <_>
                        9 6 8 3 -1.</_>
                    <_>
                        13 6 4 3 2.</_></rects>
                <tilted>0</tilted></_>
            <_>
                <rects>
                    <_>
                        9 11 3 2 -1.</_>
                    <_>
                        9 12 3 1 2.</_></rects>
                <tilted>0</tilted></_>
            <_>
                <rects>
                    <_>
                        9 12 1 8 -1.</_>
                    <_>
                        9 16 1 4 2.</_></rects>
                <tilted>0</tilted></_>
            <_>
                <rects>
                    <_>
                        10 0 3 15 -1.</_>
                    <_>
                        11 0 1 15 2.</_></rects>
                <tilted>0</tilted></_>
            <_>
                <rects>
                    <_>
                        10 5 6 8 -1.</_>
                    <_>
                        10 5 3 4 2.</_>
                    <_>
                        13 9 3 4 2.</_></rects>
                <tilted>0</tilted></_>
            <_>
                <rects>
                    <_>
                        10 7 1 2 -1.</_>
                    <_>
                        10 8 1 1 2.</_></rects>
                <tilted>0</tilted></_>
            <_>
                <rects>
                    <_>
                        10 12 7 2 -1.</_>
                    <_>
                        10 13 7 1 2.</_></rects>
                <tilted>0</tilted></_>
            <_>
                <rects>
                    <_>
                        11 0 2 14 -1.</_>
                    <_>
                        11 0 1 7 2.</_>
                    <_>
                        12 7 1 7 2.</_></rects>
                <tilted>0</tilted></_>
            <_>
                <rects>
                    <_>
                        11 0 8 20 -1.</_>
                    <_>
                        15 0 4 20 2.</_></rects>
                <tilted>0</tilted></_>
            <_>
                <rects>
                    <_>
                        11 2 5 2 -1.</_>
                    <_>
                        11 3 5 1 2.</_></rects>
                <tilted>0</tilted></_>
            <_>
                <rects>
                    <_>
                        11 2 8 4 -1.</_>
                    <_>
                        11 4 8 2 2.</_></rects>
                <tilted>0</tilted></_>
            <_>
                <rects>
                    <_>
                        11 3 9 11 -1.</_>
                    <_>
                        14 3 3 11 2.</_></rects>
                <tilted>0</tilted></_>
            <_>
                <rects>
                    <_>
                        11 5 6 9 -1.</_>
                    <_>
                        14 5 3 9 2.</_></rects>
                <tilted>0</tilted></_>
            <_>
                <rects>
                    <_>
                        12 1 2 14 -1.</_>
                    <_>
                        12 1 1 7 2.</_>
                    <_>
                        13 8 1 7 2.</_></rects>
                <tilted>0</tilted></_>
            <_>
                <rects>
                    <_>
                        12 2 4 7 -1.</_>
                    <_>
                        14 2 2 7 2.</_></rects>
                <tilted>0</tilted></_>
            <_>
                <rects>
                    <_>
                        12 3 8 4 -1.</_>
                    <_>
                        12 5 8 2 2.</_></rects>
                <tilted>0</tilted></_>
            <_>
                <rects>
                    <_>
                        12 5 4 7 -1.</_>
                    <_>
                        14 5 2 7 2.</_></rects>
                <tilted>0</tilted></_>
            <_>
                <rects>
                    <_>
                        12 5 7 14 -1.</_>
                    <_>
                        12 12 7 7 2.</_></rects>
                <tilted>0</tilted></_>
            <_>
                <rects>
                    <_>
                        13 9 3 2 -1.</_>
                    <_>
                        13 10 3 1 2.</_></rects>
                <tilted>0</tilted></_>
            <_>
                <rects>
                    <_>
                        13 11 4 2 -1.</_>
                    <_>
                        13 12 4 1 2.</_></rects>
                <tilted>0</tilted></_>
            <_>
                <rects>
                    <_>
                        14 6 2 12 -1.</_>
                    <_>
                        14 6 1 6 2.</_>
                    <_>
                        15 12 1 6 2.</_></rects>
                <tilted>0</tilted></_>
            <_>
                <rects>
                    <_>
                        14 6 2 8 -1.</_>
                    <_>
                        15 6 1 8 2.</_></rects>
                <tilted>0</tilted></_>
            <_>
                <rects>
                    <_>
                        15 3 2 12 -1.</_>
                    <_>
                        16 3 1 12 2.</_></rects>
                <tilted>0</tilted></_>
            <_>
                <rects>
                    <_>
                        15 6 2 5 -1.</_>
                    <_>
                        16 6 1 5 2.</_></rects>
                <tilted>0</tilted></_>
            <_>
                <rects>
                    <_>
                        15 8 2 4 -1.</_>
                    <_>
                        16 8 1 4 2.</_></rects>
                <tilted>0</tilted></_>
            <_>
                <rects>
                    <_>
                        15 8 2 7 -1.</_>
                    <_>
                        16 8 1 7 2.</_></rects>
                <tilted>0</tilted></_>
            <_>
                <rects>
                    <_>
                        16 11 1 2 -1.</_>
                    <_>
                        16 12 1 1 2.</_></rects>
                <tilted>0</tilted></_>
            <_>
                <rects>
                    <_>
                        16 11 2 3 -1.</_>
                    <_>
                        17 11 1 3 2.</_></rects>
                <tilted>0</tilted></_>
            <_>
                <rects>
                    <_>
                        19 1 1 16 -1.</_>
                    <_>
                        19 9 1 8 2.</_></rects>
                <tilted>0</tilted></_></features></cascade>
</opencv_storage>
